-2.620129885825152 4.175556895612686 4.532797700865823 1.6762734173945204 -5.72864858629205 
-5.689470293472226 8.624254365601715 9.20839274699471 3.5470982476781594 -12.364344714235957 
-0.09845227305395593 0.5498056633782668 1.1056925863285703 0.3264514952204467 -1.3073198839523612 
0.18891960199640626 -0.5402350430882769 0.14287414912966626 -0.5952332038158107 0.8116069587492015 
-2.3506171340568036 2.8747069539901107 2.90104508750528 1.3304922932599943 -4.237507470499276 
0.46686927472310674 -0.4564739010578103 0.12821881415453606 -0.15491844169717947 0.3358519428162637 
0.6807021647771869 0.06226061914023117 0.04727259216444724 0.1834505599504882 0.32504591021839724 
0.3723085621667029 0.2875288227460275 -0.03823392998360879 0.19042169095227185 0.47928162906890304 
-0.5040824469633868 0.4309760436890521 0.5113409576359523 -0.21655802967594004 0.28909006487438305 
-0.39969472340438666 -0.23581530759689007 0.31148296217443194 0.46356520852149474 -0.5225696335924023 
-0.5030927690980009 1.325008999082039 1.08091761694128 0.5871069692614946 -2.1571573124147885 
-0.5560311016323575 1.309939435180231 1.1901644497014103 0.8033128217160707 -1.3075108318062305 
-0.30499363466038826 -0.2114318769233086 -0.0639801338214281 -0.43856038418435644 -0.2647357372034445 
0.5142257816712033 -0.7393727431803464 0.012695962026844807 -0.1264219062472517 0.13420786599825058 
0.0931219434507396 -0.8896186895383804 -0.564831514631416 -0.13486618194743497 0.9642309891724784 
-0.1220939318277904 -0.09659093377882766 0.1584016094211329 -0.45648201486855333 0.2565860941216866 
4.761300465643448 -7.051432445846882 -7.132697084689347 -2.688312061846347 9.891035607448805 
